Language model created by QuickLM on Sat Feb 13 18:40:50 EST 2016
Copyright (c) 1996-2010 Carnegie Mellon University and Alexander I. Rudnicky

The model is in standard ARPA format, designed by Doug Paul while he was at MITRE.

The code that was used to produce this language model is available in Open Source.
Please visit http://www.speech.cs.cmu.edu/tools/ for more information

The (fixed) discount mass is 0.5. The backoffs are computed using the ratio method.
This model based on a corpus of 10 sentences and 37 words

\data\
ngram 1=37
ngram 2=51
ngram 3=45

\1-grams:
-1.1461 </s> -0.3010
-1.1461 <s> -0.2621
-1.6690 A -0.2916
-2.1461 ALCOHOLIC -0.2979
-2.1461 BILLS -0.2979
-1.6690 CALLED -0.2884
-1.6690 CART -0.2916
-2.1461 CASHIER -0.2688
-2.1461 CHAIRPERSON -0.2688
-2.1461 COMPLAINT -0.2979
-2.1461 DERANGE -0.2884
-2.1461 DOES -0.2916
-2.1461 DRIVE -0.2688
-2.1461 EAGLE -0.2688
-1.6690 EASY -0.2916
-2.1461 ELECTED -0.2979
-2.1461 FISHERMAN -0.2688
-2.1461 FOLLOW -0.2688
-2.1461 HAVE -0.2884
-2.1461 HER -0.2979
-1.5441 HIM -0.2755
-2.1461 HOW -0.2979
-1.8451 I -0.2916
-2.1461 LUNATIC -0.2688
-2.1461 NEXT -0.2979
-2.1461 SCIENTISTS -0.2916
-2.1461 SHUTDOWN -0.2688
-2.1461 STOP -0.2688
-2.1461 TAX -0.2688
-1.5441 THE -0.2884
-2.1461 THEY -0.2979
-2.1461 THOSE -0.2979
-2.1461 TO -0.2884
-2.1461 UNIQUE -0.2979
-2.1461 USABLE -0.2979
-2.1461 WIFE -0.2979
-2.1461 ZOOMS -0.2979

\2-grams:
-1.3010 <s> A -0.2218
-1.3010 <s> BILLS 0.0000
-0.8239 <s> EASY 0.0000
-1.3010 <s> HOW 0.0000
-1.0000 <s> I 0.0000
-1.3010 <s> THEY 0.0000
-1.3010 <s> THOSE 0.0000
-0.7782 A TAX 0.0000
-0.7782 A UNIQUE 0.0000
-0.7782 A USABLE 0.0000
-0.3010 ALCOHOLIC ZOOMS 0.0000
-0.3010 BILLS WIFE 0.0000
-0.3010 CALLED HIM -0.0969
-0.7782 CART FOLLOW 0.0000
-0.7782 CART SHUTDOWN 0.0000
-0.7782 CART STOP 0.0000
-0.3010 CASHIER </s> -0.3010
-0.3010 CHAIRPERSON </s> -0.3010
-0.3010 COMPLAINT DERANGE 0.0000
-0.3010 DERANGE THE -0.2430
-0.3010 DOES A -0.2218
-0.3010 DRIVE </s> -0.3010
-0.3010 EAGLE </s> -0.3010
-0.3010 EASY CART 0.0000
-0.3010 ELECTED HER 0.0000
-0.3010 FISHERMAN </s> -0.3010
-0.3010 FOLLOW </s> -0.3010
-0.3010 HAVE HIM -0.2430
-0.3010 HER CHAIRPERSON 0.0000
-0.9031 HIM A -0.2218
-0.9031 HIM DRIVE 0.0000
-0.6021 HIM THE -0.1761
-0.3010 HOW DOES 0.0000
-0.3010 I CALLED 0.0000
-0.3010 LUNATIC </s> -0.3010
-0.3010 NEXT TO 0.0000
-0.3010 SCIENTISTS CALLED 0.0000
-0.3010 SHUTDOWN </s> -0.3010
-0.3010 STOP </s> -0.3010
-0.3010 TAX </s> -0.3010
-0.9031 THE CASHIER 0.0000
-0.9031 THE EAGLE 0.0000
-0.9031 THE FISHERMAN 0.0000
-0.9031 THE LUNATIC 0.0000
-0.3010 THEY HAVE 0.0000
-0.3010 THOSE SCIENTISTS 0.0000
-0.3010 TO THE -0.2430
-0.3010 UNIQUE COMPLAINT 0.0000
-0.3010 USABLE ALCOHOLIC 0.0000
-0.3010 WIFE ELECTED 0.0000
-0.3010 ZOOMS NEXT 0.0000

\3-grams:
-0.3010 <s> A USABLE
-0.3010 <s> BILLS WIFE
-0.3010 <s> EASY CART
-0.3010 <s> HOW DOES
-0.3010 <s> I CALLED
-0.3010 <s> THEY HAVE
-0.3010 <s> THOSE SCIENTISTS
-0.3010 A TAX </s>
-0.3010 A UNIQUE COMPLAINT
-0.3010 A USABLE ALCOHOLIC
-0.3010 ALCOHOLIC ZOOMS NEXT
-0.3010 BILLS WIFE ELECTED
-0.7782 CALLED HIM A
-0.4771 CALLED HIM THE
-0.3010 CART FOLLOW </s>
-0.3010 CART SHUTDOWN </s>
-0.3010 CART STOP </s>
-0.3010 COMPLAINT DERANGE THE
-0.3010 DERANGE THE EAGLE
-0.3010 DOES A UNIQUE
-0.7782 EASY CART FOLLOW
-0.7782 EASY CART SHUTDOWN
-0.7782 EASY CART STOP
-0.3010 ELECTED HER CHAIRPERSON
-0.3010 HAVE HIM DRIVE
-0.3010 HER CHAIRPERSON </s>
-0.3010 HIM A TAX
-0.3010 HIM DRIVE </s>
-0.6021 HIM THE CASHIER
-0.6021 HIM THE FISHERMAN
-0.3010 HOW DOES A
-0.3010 I CALLED HIM
-0.3010 NEXT TO THE
-0.3010 SCIENTISTS CALLED HIM
-0.3010 THE CASHIER </s>
-0.3010 THE EAGLE </s>
-0.3010 THE FISHERMAN </s>
-0.3010 THE LUNATIC </s>
-0.3010 THEY HAVE HIM
-0.3010 THOSE SCIENTISTS CALLED
-0.3010 TO THE LUNATIC
-0.3010 UNIQUE COMPLAINT DERANGE
-0.3010 USABLE ALCOHOLIC ZOOMS
-0.3010 WIFE ELECTED HER
-0.3010 ZOOMS NEXT TO

\end\
